<?xml version="1.0"?>
<opencv_storage>
<stage1>
  <maxWeakCount>6</maxWeakCount>
  <stageThreshold>5.0551646947860718e-01</stageThreshold>
  <weakClassifiers>
    <_>
      <internalNodes>
        0 -1 93031 3.9924094453454018e-03</internalNodes>
      <leafValues>
        -6.0067111253738403e-01 8.8613861799240112e-01</leafValues></_>
    <_>
      <internalNodes>
        0 -1 84176 1.3580847531557083e-02</internalNodes>
      <leafValues>
        -5.4172468185424805e-01 8.4664660692214966e-01</leafValues></_>
    <_>
      <internalNodes>
        0 -1 18216 4.8795044422149658e-03</internalNodes>
      <leafValues>
        -8.5985487699508667e-01 5.6512761116027832e-01</leafValues></_>
    <_>
      <internalNodes>
        0 -1 66166 -3.1542919576168060e-02</internalNodes>
      <leafValues>
        -9.7001242637634277e-01 4.2933642864227295e-01</leafValues></_>
    <_>
      <internalNodes>
        0 -1 9737 -8.5725310782436281e-05</internalNodes>
      <leafValues>
        -9.6332550048828125e-01 3.7544837594032288e-01</leafValues></_>
    <_>
      <internalNodes>
        0 -1 9899 -2.3411208530887961e-04</internalNodes>
      <leafValues>
        -9.8163723945617676e-01 3.1461110711097717e-01</leafValues></_></weakClassifiers></stage1>
</opencv_storage>
