<?xml version="1.0"?>
<opencv_storage>
<stage0>
  <maxWeakCount>5</maxWeakCount>
  <stageThreshold>-2.0732164382934570e-01</stageThreshold>
  <weakClassifiers>
    <_>
      <internalNodes>
        0 -1 93031 4.3529779650270939e-03</internalNodes>
      <leafValues>
        -5.9083467721939087e-01 9.2802053689956665e-01</leafValues></_>
    <_>
      <internalNodes>
        0 -1 85394 2.4755378253757954e-03</internalNodes>
      <leafValues>
        -6.0518902540206909e-01 8.5467559099197388e-01</leafValues></_>
    <_>
      <internalNodes>
        0 -1 9444 1.7914758995175362e-02</internalNodes>
      <leafValues>
        -9.7923731803894043e-01 5.6230998039245605e-01</leafValues></_>
    <_>
      <internalNodes>
        0 -1 53719 -1.6791973263025284e-02</internalNodes>
      <leafValues>
        9.4553971290588379e-01 -5.3237783908843994e-01</leafValues></_>
    <_>
      <internalNodes>
        0 -1 25789 -2.1233288571238518e-02</internalNodes>
      <leafValues>
        9.8534643650054932e-01 -4.9645557999610901e-01</leafValues></_></weakClassifiers></stage0>
</opencv_storage>
