<?xml version="1.0"?>
<opencv_storage>
<stage2>
  <maxWeakCount>5</maxWeakCount>
  <stageThreshold>3.0823242664337158e-01</stageThreshold>
  <weakClassifiers>
    <_>
      <internalNodes>
        0 -1 24750 4.2697638273239136e-02</internalNodes>
      <leafValues>
        5.3013908863067627e-01 -9.7167140245437622e-01</leafValues></_>
    <_>
      <internalNodes>
        0 -1 90021 4.8073176294565201e-03</internalNodes>
      <leafValues>
        -6.3334715366363525e-01 9.1420567035675049e-01</leafValues></_>
    <_>
      <internalNodes>
        0 -1 9737 2.7823325581266545e-05</internalNodes>
      <leafValues>
        4.9272763729095459e-01 -1.</leafValues></_>
    <_>
      <internalNodes>
        0 -1 118641 6.5737292170524597e-02</internalNodes>
      <leafValues>
        5.2844434976577759e-01 -9.6381765604019165e-01</leafValues></_>
    <_>
      <internalNodes>
        0 -1 104866 -4.6268813312053680e-03</internalNodes>
      <leafValues>
        9.9157440662384033e-01 -6.0973149538040161e-01</leafValues></_></weakClassifiers></stage2>
</opencv_storage>
